digraph Tree {
node [shape=box, style="filled", color="black", fontname="helvetica"] ;
edge [fontname="helvetica"] ;
0 [label="이용후경과월_신용 <= 2.5\ngini = 0.653\nsamples = 93709\nvalue = [31900, 23169, 38640]\nclass = 22.Active_간헐", fillcolor="#f1e9fc"] ;
1 [label="이용개월수_신판_R3M <= 2.5\ngini = 0.487\nsamples = 55069\nvalue = [31900, 23169, 0]\nclass = 21.Active_연속", fillcolor="#f8ddc9"] ;
0 -> 1 [labeldistance=2.5, labelangle=45, headlabel="True"] ;
2 [label="이용개월수_CA_R3M <= 2.5\ngini = 0.019\nsamples = 23394\nvalue = [225, 23169, 0]\nclass = 휴면", fillcolor="#3be582"] ;
1 -> 2 ;
3 [label="이용개월수_CA_R3M <= 1.5\ngini = 0.007\nsamples = 23247\nvalue = [78, 23169, 0]\nclass = 휴면", fillcolor="#3ae581"] ;
2 -> 3 ;
4 [label="이용금액_CA_R3M <= 95000.0\ngini = 0.003\nsamples = 22712\nvalue = [30, 22682, 0]\nclass = 휴면", fillcolor="#39e581"] ;
3 -> 4 ;
5 [label="gini = 0.0\nsamples = 21621\nvalue = [0, 21621, 0]\nclass = 휴면", fillcolor="#39e581"] ;
4 -> 5 ;
6 [label="이용금액_업종기준 <= 11834933.0\ngini = 0.053\nsamples = 1091\nvalue = [30, 1061, 0]\nclass = 휴면", fillcolor="#3fe685"] ;
4 -> 6 ;
7 [label="이용개월수_일시불_R3M <= 1.5\ngini = 0.049\nsamples = 1085\nvalue = [27, 1058, 0]\nclass = 휴면", fillcolor="#3ee684"] ;
6 -> 7 ;
8 [label="gini = 0.0\nsamples = 655\nvalue = [0, 655, 0]\nclass = 휴면", fillcolor="#39e581"] ;
7 -> 8 ;
9 [label="이용후경과월_신용 <= 0.5\ngini = 0.118\nsamples = 430\nvalue = [27, 403, 0]\nclass = 휴면", fillcolor="#46e789"] ;
7 -> 9 ;
10 [label="이용건수_일시불_B0M <= 0.5\ngini = 0.219\nsamples = 216\nvalue = [27, 189, 0]\nclass = 휴면", fillcolor="#55e993"] ;
9 -> 10 ;
11 [label="gini = 0.0\nsamples = 6\nvalue = [6, 0, 0]\nclass = 21.Active_연속", fillcolor="#e58139"] ;
10 -> 11 ;
12 [label="이용건수_CA_B0M <= 0.5\ngini = 0.18\nsamples = 210\nvalue = [21, 189, 0]\nclass = 휴면", fillcolor="#4fe88f"] ;
10 -> 12 ;
13 [label="이용금액_R3M_신용 <= 400.0\ngini = 0.299\nsamples = 115\nvalue = [21, 94, 0]\nclass = 휴면", fillcolor="#65eb9d"] ;
12 -> 13 ;
14 [label="gini = 0.0\nsamples = 2\nvalue = [2, 0, 0]\nclass = 21.Active_연속", fillcolor="#e58139"] ;
13 -> 14 ;
15 [label="연령 <= 54.5\ngini = 0.28\nsamples = 113\nvalue = [19, 94, 0]\nclass = 휴면", fillcolor="#61ea9a"] ;
13 -> 15 ;
16 [label="교통_철도버스이용금액 <= 11400.0\ngini = 0.353\nsamples = 83\nvalue = [19, 64, 0]\nclass = 휴면", fillcolor="#74eda6"] ;
15 -> 16 ;
17 [label="보험콜대상횟수_R12M <= 3.5\ngini = 0.304\nsamples = 75\nvalue = [14, 61, 0]\nclass = 휴면", fillcolor="#66eb9e"] ;
16 -> 17 ;
18 [label="유효카드수_신용 <= 1.5\ngini = 0.225\nsamples = 62\nvalue = [8, 54, 0]\nclass = 휴면", fillcolor="#56e994"] ;
17 -> 18 ;
19 [label="연령 <= 53.5\ngini = 0.087\nsamples = 44\nvalue = [2, 42, 0]\nclass = 휴면", fillcolor="#42e687"] ;
18 -> 19 ;
20 [label="이용개월수_결제일_R6M <= 1.5\ngini = 0.046\nsamples = 42\nvalue = [1, 41, 0]\nclass = 휴면", fillcolor="#3ee684"] ;
19 -> 20 ;
21 [label="청구금액_B0 <= 338006.0\ngini = 0.444\nsamples = 3\nvalue = [1, 2, 0]\nclass = 휴면", fillcolor="#9cf2c0"] ;
20 -> 21 ;
22 [label="gini = 0.0\nsamples = 1\nvalue = [1, 0, 0]\nclass = 21.Active_연속", fillcolor="#e58139"] ;
21 -> 22 ;
23 [label="gini = 0.0\nsamples = 2\nvalue = [0, 2, 0]\nclass = 휴면", fillcolor="#39e581"] ;
21 -> 23 ;
24 [label="gini = 0.0\nsamples = 39\nvalue = [0, 39, 0]\nclass = 휴면", fillcolor="#39e581"] ;
20 -> 24 ;
25 [label="연체건수_R6M <= 0.5\ngini = 0.5\nsamples = 2\nvalue = [1, 1, 0]\nclass = 21.Active_연속", fillcolor="#ffffff"] ;
19 -> 25 ;
26 [label="gini = 0.0\nsamples = 1\nvalue = [0, 1, 0]\nclass = 휴면", fillcolor="#39e581"] ;
25 -> 26 ;
27 [label="gini = 0.0\nsamples = 1\nvalue = [1, 0, 0]\nclass = 21.Active_연속", fillcolor="#e58139"] ;
25 -> 27 ;
28 [label="이용개월수_결제일_R6M <= 4.5\ngini = 0.444\nsamples = 18\nvalue = [6, 12, 0]\nclass = 휴면", fillcolor="#9cf2c0"] ;
18 -> 28 ;
29 [label="gini = 0.0\nsamples = 10\nvalue = [0, 10, 0]\nclass = 휴면", fillcolor="#39e581"] ;
28 -> 29 ;
30 [label="이용건수_일시불_R12M <= 162.0\ngini = 0.375\nsamples = 8\nvalue = [6, 2, 0]\nclass = 21.Active_연속", fillcolor="#eeab7b"] ;
28 -> 30 ;
31 [label="gini = 0.0\nsamples = 6\nvalue = [6, 0, 0]\nclass = 21.Active_연속", fillcolor="#e58139"] ;
30 -> 31 ;
32 [label="gini = 0.0\nsamples = 2\nvalue = [0, 2, 0]\nclass = 휴면", fillcolor="#39e581"] ;
30 -> 32 ;
33 [label="이용개월수_신판_R12M <= 10.5\ngini = 0.497\nsamples = 13\nvalue = [6, 7, 0]\nclass = 휴면", fillcolor="#e3fbed"] ;
17 -> 33 ;
34 [label="이용금액_신판_R6M <= 155280.0\ngini = 0.375\nsamples = 8\nvalue = [6, 2, 0]\nclass = 21.Active_연속", fillcolor="#eeab7b"] ;
33 -> 34 ;
35 [label="gini = 0.0\nsamples = 2\nvalue = [0, 2, 0]\nclass = 휴면", fillcolor="#39e581"] ;
34 -> 35 ;
36 [label="gini = 0.0\nsamples = 6\nvalue = [6, 0, 0]\nclass = 21.Active_연속", fillcolor="#e58139"] ;
34 -> 36 ;
37 [label="gini = 0.0\nsamples = 5\nvalue = [0, 5, 0]\nclass = 휴면", fillcolor="#39e581"] ;
33 -> 37 ;
38 [label="이용금액_체크_R12M <= 48810.0\ngini = 0.469\nsamples = 8\nvalue = [5, 3, 0]\nclass = 21.Active_연속", fillcolor="#f5cdb0"] ;
16 -> 38 ;
39 [label="이용금액_R3M_신용체크 <= 314135.0\ngini = 0.278\nsamples = 6\nvalue = [5, 1, 0]\nclass = 21.Active_연속", fillcolor="#ea9a61"] ;
38 -> 39 ;
40 [label="gini = 0.0\nsamples = 1\nvalue = [0, 1, 0]\nclass = 휴면", fillcolor="#39e581"] ;
39 -> 40 ;
41 [label="gini = 0.0\nsamples = 5\nvalue = [5, 0, 0]\nclass = 21.Active_연속", fillcolor="#e58139"] ;
39 -> 41 ;
42 [label="gini = 0.0\nsamples = 2\nvalue = [0, 2, 0]\nclass = 휴면", fillcolor="#39e581"] ;
38 -> 42 ;
43 [label="gini = 0.0\nsamples = 30\nvalue = [0, 30, 0]\nclass = 휴면", fillcolor="#39e581"] ;
15 -> 43 ;
44 [label="gini = 0.0\nsamples = 95\nvalue = [0, 95, 0]\nclass = 휴면", fillcolor="#39e581"] ;
12 -> 44 ;
45 [label="gini = 0.0\nsamples = 214\nvalue = [0, 214, 0]\nclass = 휴면", fillcolor="#39e581"] ;
9 -> 45 ;
46 [label="이용가맹점수 <= 18.5\ngini = 0.5\nsamples = 6\nvalue = [3, 3, 0]\nclass = 21.Active_연속", fillcolor="#ffffff"] ;
6 -> 46 ;
47 [label="gini = 0.0\nsamples = 3\nvalue = [3, 0, 0]\nclass = 21.Active_연속", fillcolor="#e58139"] ;
46 -> 47 ;
48 [label="gini = 0.0\nsamples = 3\nvalue = [0, 3, 0]\nclass = 휴면", fillcolor="#39e581"] ;
46 -> 48 ;
49 [label="이용개월수_신판_R3M <= 1.5\ngini = 0.163\nsamples = 535\nvalue = [48, 487, 0]\nclass = 휴면", fillcolor="#4de88d"] ;
3 -> 49 ;
50 [label="납부_가스전기료이용금액 <= 78185.0\ngini = 0.061\nsamples = 347\nvalue = [11, 336, 0]\nclass = 휴면", fillcolor="#3fe685"] ;
49 -> 50 ;
51 [label="RP금액_B0M <= 6575.0\ngini = 0.056\nsamples = 346\nvalue = [10, 336, 0]\nclass = 휴면", fillcolor="#3fe685"] ;
50 -> 51 ;
52 [label="쇼핑_기타_이용금액 <= 1789750.0\ngini = 0.051\nsamples = 345\nvalue = [9, 336, 0]\nclass = 휴면", fillcolor="#3ee684"] ;
51 -> 52 ;
53 [label="_1순위카드ID <= 1738.0\ngini = 0.045\nsamples = 344\nvalue = [8, 336, 0]\nclass = 휴면", fillcolor="#3ee684"] ;
52 -> 53 ;
54 [label="여유_운동이용금액 <= 55000.0\ngini = 0.04\nsamples = 343\nvalue = [7, 336, 0]\nclass = 휴면", fillcolor="#3de684"] ;
53 -> 54 ;
55 [label="할인금액_R3M <= 48.0\ngini = 0.034\nsamples = 342\nvalue = [6, 336, 0]\nclass = 휴면", fillcolor="#3de583"] ;
54 -> 55 ;
56 [label="이용금액_체크_R12M <= 8059980.0\ngini = 0.012\nsamples = 327\nvalue = [2, 325, 0]\nclass = 휴면", fillcolor="#3ae582"] ;
55 -> 56 ;
57 [label="이용금액_해외 <= 495528.0\ngini = 0.006\nsamples = 324\nvalue = [1, 323, 0]\nclass = 휴면", fillcolor="#3ae581"] ;
56 -> 57 ;
58 [label="gini = 0.0\nsamples = 320\nvalue = [0, 320, 0]\nclass = 휴면", fillcolor="#39e581"] ;
57 -> 58 ;
59 [label="이용건수_오프라인_B0M <= 1.5\ngini = 0.375\nsamples = 4\nvalue = [1, 3, 0]\nclass = 휴면", fillcolor="#7beeab"] ;
57 -> 59 ;
60 [label="gini = 0.0\nsamples = 1\nvalue = [1, 0, 0]\nclass = 21.Active_연속", fillcolor="#e58139"] ;
59 -> 60 ;
61 [label="gini = 0.0\nsamples = 3\nvalue = [0, 3, 0]\nclass = 휴면", fillcolor="#39e581"] ;
59 -> 61 ;
62 [label="이용건수_할부_유이자_R12M <= 1.0\ngini = 0.444\nsamples = 3\nvalue = [1, 2, 0]\nclass = 휴면", fillcolor="#9cf2c0"] ;
56 -> 62 ;
63 [label="gini = 0.0\nsamples = 1\nvalue = [1, 0, 0]\nclass = 21.Active_연속", fillcolor="#e58139"] ;
62 -> 63 ;
64 [label="gini = 0.0\nsamples = 2\nvalue = [0, 2, 0]\nclass = 휴면", fillcolor="#39e581"] ;
62 -> 64 ;
65 [label="이용금액_할부_유이자_R12M <= 358870.0\ngini = 0.391\nsamples = 15\nvalue = [4, 11, 0]\nclass = 휴면", fillcolor="#81eeaf"] ;
55 -> 65 ;
66 [label="이용금액_신용_R3M <= 5961360.0\ngini = 0.153\nsamples = 12\nvalue = [1, 11, 0]\nclass = 휴면", fillcolor="#4be78c"] ;
65 -> 66 ;
67 [label="gini = 0.0\nsamples = 11\nvalue = [0, 11, 0]\nclass = 휴면", fillcolor="#39e581"] ;
66 -> 67 ;
68 [label="gini = 0.0\nsamples = 1\nvalue = [1, 0, 0]\nclass = 21.Active_연속", fillcolor="#e58139"] ;
66 -> 68 ;
69 [label="gini = 0.0\nsamples = 3\nvalue = [3, 0, 0]\nclass = 21.Active_연속", fillcolor="#e58139"] ;
65 -> 69 ;
70 [label="gini = 0.0\nsamples = 1\nvalue = [1, 0, 0]\nclass = 21.Active_연속", fillcolor="#e58139"] ;
54 -> 70 ;
71 [label="gini = 0.0\nsamples = 1\nvalue = [1, 0, 0]\nclass = 21.Active_연속", fillcolor="#e58139"] ;
53 -> 71 ;
72 [label="gini = 0.0\nsamples = 1\nvalue = [1, 0, 0]\nclass = 21.Active_연속", fillcolor="#e58139"] ;
52 -> 72 ;
73 [label="gini = 0.0\nsamples = 1\nvalue = [1, 0, 0]\nclass = 21.Active_연속", fillcolor="#e58139"] ;
51 -> 73 ;
74 [label="gini = 0.0\nsamples = 1\nvalue = [1, 0, 0]\nclass = 21.Active_연속", fillcolor="#e58139"] ;
50 -> 74 ;
75 [label="이용후경과월_신판 <= 0.5\ngini = 0.316\nsamples = 188\nvalue = [37, 151, 0]\nclass = 휴면", fillcolor="#6aeba0"] ;
49 -> 75 ;
76 [label="이용금액_CA_B0M <= 15000.0\ngini = 0.436\nsamples = 115\nvalue = [37, 78, 0]\nclass = 휴면", fillcolor="#97f1bd"] ;
75 -> 76 ;
77 [label="gini = 0.0\nsamples = 16\nvalue = [16, 0, 0]\nclass = 21.Active_연속", fillcolor="#e58139"] ;
76 -> 77 ;
78 [label="이용금액_신판_B0M <= 150.0\ngini = 0.334\nsamples = 99\nvalue = [21, 78, 0]\nclass = 휴면", fillcolor="#6eeca3"] ;
76 -> 78 ;
79 [label="gini = 0.0\nsamples = 8\nvalue = [8, 0, 0]\nclass = 21.Active_연속", fillcolor="#e58139"] ;
78 -> 79 ;
80 [label="이용금액_할부_유이자_R6M <= 1812082.5\ngini = 0.245\nsamples = 91\nvalue = [13, 78, 0]\nclass = 휴면", fillcolor="#5ae996"] ;
78 -> 80 ;
81 [label="_1순위카드ID <= 1562.5\ngini = 0.187\nsamples = 86\nvalue = [9, 77, 0]\nclass = 휴면", fillcolor="#50e890"] ;
80 -> 81 ;
82 [label="교통_버스지하철이용금액 <= 12650.0\ngini = 0.153\nsamples = 84\nvalue = [7, 77, 0]\nclass = 휴면", fillcolor="#4be78c"] ;
81 -> 82 ;
83 [label="여유_공연이용금액 <= 17000.0\ngini = 0.116\nsamples = 81\nvalue = [5, 76, 0]\nclass = 휴면", fillcolor="#46e789"] ;
82 -> 83 ;
84 [label="컨택건수_부대서비스_TM_B0M <= 0.5\ngini = 0.095\nsamples = 80\nvalue = [4, 76, 0]\nclass = 휴면", fillcolor="#43e688"] ;
83 -> 84 ;
85 [label="탈회횟수_발급1년이내 <= 0.5\ngini = 0.073\nsamples = 79\nvalue = [3, 76, 0]\nclass = 휴면", fillcolor="#41e686"] ;
84 -> 85 ;
86 [label="보험콜통화횟수_R12M <= 17.0\ngini = 0.05\nsamples = 78\nvalue = [2, 76, 0]\nclass = 휴면", fillcolor="#3ee684"] ;
85 -> 86 ;
87 [label="청구금액_R3M <= 9982661.5\ngini = 0.026\nsamples = 76\nvalue = [1, 75, 0]\nclass = 휴면", fillcolor="#3ce583"] ;
86 -> 87 ;
88 [label="gini = 0.0\nsamples = 74\nvalue = [0, 74, 0]\nclass = 휴면", fillcolor="#39e581"] ;
87 -> 88 ;
89 [label="이용건수_일시불_B0M <= 17.5\ngini = 0.5\nsamples = 2\nvalue = [1, 1, 0]\nclass = 21.Active_연속", fillcolor="#ffffff"] ;
87 -> 89 ;
90 [label="gini = 0.0\nsamples = 1\nvalue = [1, 0, 0]\nclass = 21.Active_연속", fillcolor="#e58139"] ;
89 -> 90 ;
91 [label="gini = 0.0\nsamples = 1\nvalue = [0, 1, 0]\nclass = 휴면", fillcolor="#39e581"] ;
89 -> 91 ;
92 [label="납부_전체이용금액 <= 381123.5\ngini = 0.5\nsamples = 2\nvalue = [1, 1, 0]\nclass = 21.Active_연속", fillcolor="#ffffff"] ;
86 -> 92 ;
93 [label="gini = 0.0\nsamples = 1\nvalue = [0, 1, 0]\nclass = 휴면", fillcolor="#39e581"] ;
92 -> 93 ;
94 [label="gini = 0.0\nsamples = 1\nvalue = [1, 0, 0]\nclass = 21.Active_연속", fillcolor="#e58139"] ;
92 -> 94 ;
95 [label="gini = 0.0\nsamples = 1\nvalue = [1, 0, 0]\nclass = 21.Active_연속", fillcolor="#e58139"] ;
85 -> 95 ;
96 [label="gini = 0.0\nsamples = 1\nvalue = [1, 0, 0]\nclass = 21.Active_연속", fillcolor="#e58139"] ;
84 -> 96 ;
97 [label="gini = 0.0\nsamples = 1\nvalue = [1, 0, 0]\nclass = 21.Active_연속", fillcolor="#e58139"] ;
83 -> 97 ;
98 [label="이용금액_할부_R6M <= 366030.0\ngini = 0.444\nsamples = 3\nvalue = [2, 1, 0]\nclass = 21.Active_연속", fillcolor="#f2c09c"] ;
82 -> 98 ;
99 [label="gini = 0.0\nsamples = 2\nvalue = [2, 0, 0]\nclass = 21.Active_연속", fillcolor="#e58139"] ;
98 -> 99 ;
100 [label="gini = 0.0\nsamples = 1\nvalue = [0, 1, 0]\nclass = 휴면", fillcolor="#39e581"] ;
98 -> 100 ;
101 [label="gini = 0.0\nsamples = 2\nvalue = [2, 0, 0]\nclass = 21.Active_연속", fillcolor="#e58139"] ;
81 -> 101 ;
102 [label="이용건수_CA_R3M <= 4.5\ngini = 0.32\nsamples = 5\nvalue = [4, 1, 0]\nclass = 21.Active_연속", fillcolor="#eca06a"] ;
80 -> 102 ;
103 [label="gini = 0.0\nsamples = 4\nvalue = [4, 0, 0]\nclass = 21.Active_연속", fillcolor="#e58139"] ;
102 -> 103 ;
104 [label="gini = 0.0\nsamples = 1\nvalue = [0, 1, 0]\nclass = 휴면", fillcolor="#39e581"] ;
102 -> 104 ;
105 [label="gini = 0.0\nsamples = 73\nvalue = [0, 73, 0]\nclass = 휴면", fillcolor="#39e581"] ;
75 -> 105 ;
106 [label="gini = 0.0\nsamples = 147\nvalue = [147, 0, 0]\nclass = 21.Active_연속", fillcolor="#e58139"] ;
2 -> 106 ;
107 [label="gini = 0.0\nsamples = 31675\nvalue = [31675, 0, 0]\nclass = 21.Active_연속", fillcolor="#e58139"] ;
1 -> 107 ;
108 [label="gini = 0.0\nsamples = 38640\nvalue = [0, 0, 38640]\nclass = 22.Active_간헐", fillcolor="#8139e5"] ;
0 -> 108 [labeldistance=2.5, labelangle=-45, headlabel="False"] ;
}